0.07000000000000000666133814775093924254179,-0.05749999999999999555910790149937383830547,-0.0625,0.07999999999999998778754672912327805534005,0.06750000000000000444089209850062616169453,-0.1000000000000000055511151231257827021182,0.08499999999999999222843882762390421703458,-0.02499999999999999444888487687421729788184,0.04999999999999998889776975374843459576368,-0.01750000000000000166533453693773481063545,-0.04249999999999999611421941381195210851729,-0.09249999999999999888977697537484345957637,-0.04750000000000000055511151231257827021182,0.05249999999999999111821580299874767661095,-0.07499999999999999722444243843710864894092,0.0899999999999999966693309261245303787291,-0.0350000000000000033306690738754696212709,-0.1150000000000000049960036108132044319063,-0.05250000000000000499600361081320443190634,0.07750000000000001332267629550187848508358,0.07500000000000001110223024625156540423632,0.07250000000000000888178419700125232338905,0.0625,-0.0350000000000000033306690738754696212709,0.1199999999999999955591079014993738383055,-0.01499999999999999944488848768742172978818,-0.09500000000000000111022302462515654042363,0.04500000000000001221245327087672194465995,0.05999999999999999777955395074968691915274,0.1149999999999999911182158029987476766109,-0.09249999999999999888977697537484345957637,0.1224999999999999977795539507496869191527,-0.0975000000000000033306690738754696212709,0.04500000000000001221245327087672194465995,0.04999999999999998889776975374843459576368,-0.01249999999999999722444243843710864894092,0.1224999999999999977795539507496869191527,0.1050000000000000099920072216264088638127,-0.1150000000000000049960036108132044319063,-0.07499999999999999722444243843710864894092,-0.08249999999999999000799277837359113618731,-0.1174999999999999933386618522490607574582,-0.07000000000000000666133814775093924254179,0.1000000000000000055511151231257827021182,-0.03250000000000000111022302462515654042363,-0.05250000000000000499600361081320443190634,-0.002500000000000002220446049250313080847263,0.01500000000000001332267629550187848508358,-0.08249999999999999000799277837359113618731,0.04500000000000001221245327087672194465995,0.1224999999999999977795539507496869191527,-0.1049999999999999961142194138119521085173,-0.0975000000000000033306690738754696212709,-0.05749999999999999555910790149937383830547,-0.0625,0.1099999999999999866773237044981215149164,0.09249999999999999888977697537484345957637,0.1050000000000000099920072216264088638127,0.06500000000000000222044604925031308084726,0.02999999999999999888977697537484345957637,-0.03999999999999999389377336456163902767003,-0.1025000000000000077715611723760957829654,-0.05250000000000000499600361081320443190634,0.09500000000000000111022302462515654042363,0.03250000000000000111022302462515654042363,0.04999999999999998889776975374843459576368,0.07250000000000000888178419700125232338905,0.01749999999999998778754672912327805534005,-0.09500000000000000111022302462515654042363,-0.04249999999999999611421941381195210851729,0.1000000000000000055511151231257827021182,-0.05000000000000000277555756156289135105908,0.02499999999999999444888487687421729788184,0.05749999999999999555910790149937383830547,0,0.04250000000000000999200722162640886381269,-0.0625,-0.06750000000000000444089209850062616169453,0.04000000000000000777156117237609578296542,0.0899999999999999966693309261245303787291,0.07750000000000001332267629550187848508358,-0.1224999999999999977795539507496869191527,0.1075000000000000122124532708767219446599,-0.1049999999999999961142194138119521085173,0.07750000000000001332267629550187848508358,-0.07250000000000000888178419700125232338905,0.07750000000000001332267629550187848508358,0,-0.08749999999999999444888487687421729788184,-0.01750000000000000166533453693773481063545,-0.0899999999999999966693309261245303787291,0.07500000000000001110223024625156540423632,-0.07749999999999999944488848768742172978818,0.01000000000000000888178419700125232338905,0.08749999999999999444888487687421729788184,0.07000000000000000666133814775093924254179,-0.07499999999999999722444243843710864894092,0.1149999999999999911182158029987476766109,0.01999999999999999000799277837359113618731,0.07250000000000000888178419700125232338905,-0.1224999999999999977795539507496869191527,-0.0274999999999999966693309261245303787291,-0.1100000000000000005551115123125782702118,0.04250000000000000999200722162640886381269,-0.01499999999999999944488848768742172978818,-0.0899999999999999966693309261245303787291,-0.05250000000000000499600361081320443190634,-0.04499999999999999833466546306226518936455,0.1174999999999999933386618522490607574582,-0.04249999999999999611421941381195210851729,-0.00750000000000000666133814775093924254179,-0.1025000000000000077715611723760957829654,0.002500000000000002220446049250313080847263,-0.005000000000000004440892098500626161694527,0.03750000000000000555111512312578270211816,-0.08249999999999999000799277837359113618731,-0.1199999999999999955591079014993738383055,-0.0899999999999999966693309261245303787291,-0.07000000000000000666133814775093924254179,-0.1199999999999999955591079014993738383055,0.005000000000000004440892098500626161694527,0.01500000000000001332267629550187848508358,-0.1074999999999999983346654630622651893646,0.04749999999999998667732370449812151491642,-0.09249999999999999888977697537484345957637,-0.1074999999999999983346654630622651893646,-0.005000000000000004440892098500626161694527,0.09500000000000000111022302462515654042363,-0.08249999999999999000799277837359113618731,-0.01499999999999999944488848768742172978818,-0.1125000000000000027755575615628913510591,-0.05749999999999999555910790149937383830547,-0.1025000000000000077715611723760957829654,0.04250000000000000999200722162640886381269,0.05499999999999999333866185224906075745821,0.1124999999999999888977697537484345957637,0.01500000000000001332267629550187848508358,0,-0.1000000000000000055511151231257827021182,-0.06500000000000000222044604925031308084726,-0.07499999999999999722444243843710864894092,0.1124999999999999888977697537484345957637,0.002500000000000002220446049250313080847263,-0.04499999999999999833466546306226518936455,0.04250000000000000999200722162640886381269,0.01250000000000001110223024625156540423632,-0.04249999999999999611421941381195210851729,0.03750000000000000555111512312578270211816,0.002500000000000002220446049250313080847263,0.125,-0.02000000000000000388578058618804789148271,-0.07749999999999999944488848768742172978818,-0.02250000000000000610622663543836097232997,-0.0625,0.0625,-0.03999999999999999389377336456163902767003,-0.05250000000000000499600361081320443190634,-0.06500000000000000222044604925031308084726,-0.1049999999999999961142194138119521085173,-0.00750000000000000666133814775093924254179,0.02249999999999999222843882762390421703458,-0.02250000000000000610622663543836097232997,-0.05499999999999999333866185224906075745821,0.05499999999999999333866185224906075745821,-0.01499999999999999944488848768742172978818,-0.0625,-0.05749999999999999555910790149937383830547,-0.0625,0.1174999999999999933386618522490607574582,0.05999999999999999777955395074968691915274,0.07250000000000000888178419700125232338905,-0.09500000000000000111022302462515654042363,-0.08749999999999999444888487687421729788184,-0.07250000000000000888178419700125232338905,-0.05749999999999999555910790149937383830547,-0.0350000000000000033306690738754696212709,0.07000000000000000666133814775093924254179,0.04250000000000000999200722162640886381269,0.02249999999999999222843882762390421703458,-0.03999999999999999389377336456163902767003,-0.04750000000000000055511151231257827021182,0.1149999999999999911182158029987476766109,-0.06750000000000000444089209850062616169453,-0.08499999999999999222843882762390421703458,-0.0274999999999999966693309261245303787291,-0.03250000000000000111022302462515654042363,0.04999999999999998889776975374843459576368,-0.03999999999999999389377336456163902767003,-0.02999999999999999888977697537484345957637,0.06750000000000000444089209850062616169453,0.05249999999999999111821580299874767661095,0.01000000000000000888178419700125232338905,-0.1150000000000000049960036108132044319063,-0.08749999999999999444888487687421729788184,-0.1125000000000000027755575615628913510591,0.07250000000000000888178419700125232338905,-0.0274999999999999966693309261245303787291,0.04999999999999998889776975374843459576368,0.1149999999999999911182158029987476766109,-0.03250000000000000111022302462515654042363,0.06750000000000000444089209850062616169453,-0.02499999999999999444888487687421729788184,0.01999999999999999000799277837359113618731,0.002500000000000002220446049250313080847263,-0.02499999999999999444888487687421729788184,0.0625,-0.0975000000000000033306690738754696212709,0.06750000000000000444089209850062616169453,-0.01750000000000000166533453693773481063545,0.0274999999999999966693309261245303787291,-0.04249999999999999611421941381195210851729,0.04500000000000001221245327087672194465995,0.05999999999999999777955395074968691915274,-0.04750000000000000055511151231257827021182,-0.1174999999999999933386618522490607574582,-0.1000000000000000055511151231257827021182,-0.01249999999999999722444243843710864894092,-0.005000000000000004440892098500626161694527,-0.08749999999999999444888487687421729788184,-0.05999999999999999777955395074968691915274,-0.1025000000000000077715611723760957829654,-0.06750000000000000444089209850062616169453,0.04000000000000000777156117237609578296542,0.01000000000000000888178419700125232338905,0.002500000000000002220446049250313080847263,0.01999999999999999000799277837359113618731,-0.009999999999999995003996389186795568093657,-0.03750000000000000555111512312578270211816,0.01749999999999998778754672912327805534005,0.04500000000000001221245327087672194465995,0.1025000000000000077715611723760957829654,0.09500000000000000111022302462515654042363,-0.07000000000000000666133814775093924254179,-0.02999999999999999888977697537484345957637,-0.0274999999999999966693309261245303787291,0.1000000000000000055511151231257827021182,-0.02000000000000000388578058618804789148271,-0.03250000000000000111022302462515654042363,-0.06750000000000000444089209850062616169453,0.07999999999999998778754672912327805534005,-0.03999999999999999389377336456163902767003,0.07250000000000000888178419700125232338905,0.09249999999999999888977697537484345957637,0.125,-0.02250000000000000610622663543836097232997,0.002500000000000002220446049250313080847263,0.125,-0.05499999999999999333866185224906075745821,-0.0274999999999999966693309261245303787291,-0.0899999999999999966693309261245303787291,0.06500000000000000222044604925031308084726,0,-0.1150000000000000049960036108132044319063,-0.05499999999999999333866185224906075745821,-0.02499999999999999444888487687421729788184,0.01999999999999999000799277837359113618731,-0.01249999999999999722444243843710864894092,-0.05000000000000000277555756156289135105908,-0.1224999999999999977795539507496869191527,0.08499999999999999222843882762390421703458,0.01000000000000000888178419700125232338905,-0.01249999999999999722444243843710864894092,-0.01499999999999999944488848768742172978818,-0.02000000000000000388578058618804789148271,0.125,-0.07000000000000000666133814775093924254179,0.005000000000000004440892098500626161694527,0.125,0.1174999999999999933386618522490607574582,-0.0350000000000000033306690738754696212709,0.05249999999999999111821580299874767661095,0.09249999999999999888977697537484345957637,-0.1150000000000000049960036108132044319063,0.03250000000000000111022302462515654042363,0.1025000000000000077715611723760957829654,0.00750000000000000666133814775093924254179,0.002500000000000002220446049250313080847263,-0.08000000000000000166533453693773481063545,0.1000000000000000055511151231257827021182,-0.1150000000000000049960036108132044319063,-0.01249999999999999722444243843710864894092,-0.06750000000000000444089209850062616169453,-0.0975000000000000033306690738754696212709,-0.1125000000000000027755575615628913510591,0.07750000000000001332267629550187848508358,0.07750000000000001332267629550187848508358,0.1124999999999999888977697537484345957637,-0.05749999999999999555910790149937383830547,0.05499999999999999333866185224906075745821,0.01250000000000001110223024625156540423632,0.09500000000000000111022302462515654042363,0.0350000000000000033306690738754696212709,0.08249999999999999000799277837359113618731,-0.04750000000000000055511151231257827021182,-0.1074999999999999983346654630622651893646,-0.1199999999999999955591079014993738383055,-0.07250000000000000888178419700125232338905,0.07000000000000000666133814775093924254179,0.1149999999999999911182158029987476766109,-0.1000000000000000055511151231257827021182,0.07000000000000000666133814775093924254179,-0.009999999999999995003996389186795568093657,-0.0899999999999999966693309261245303787291,-0.03250000000000000111022302462515654042363,-0.01499999999999999944488848768742172978818,-0.07499999999999999722444243843710864894092,-0.09500000000000000111022302462515654042363,-0.1049999999999999961142194138119521085173,0.09500000000000000111022302462515654042363,0.05999999999999999777955395074968691915274,-0.03750000000000000555111512312578270211816,-0.00750000000000000666133814775093924254179,-0.04499999999999999833466546306226518936455,0.1050000000000000099920072216264088638127,0.01749999999999998778754672912327805534005,0.005000000000000004440892098500626161694527,0.02499999999999999444888487687421729788184,0.08249999999999999000799277837359113618731,-0.002500000000000002220446049250313080847263,0.01500000000000001332267629550187848508358,-0.1174999999999999933386618522490607574582,0.0975000000000000033306690738754696212709,0.1149999999999999911182158029987476766109,0.03750000000000000555111512312578270211816,0.1025000000000000077715611723760957829654,-0.005000000000000004440892098500626161694527,0.08499999999999999222843882762390421703458,0.07750000000000001332267629550187848508358,0.07250000000000000888178419700125232338905,-0.0625,-0.1100000000000000005551115123125782702118,-0.1074999999999999983346654630622651893646,0.08499999999999999222843882762390421703458,0.02499999999999999444888487687421729788184,-0.04249999999999999611421941381195210851729,-0.08499999999999999222843882762390421703458,0.02999999999999999888977697537484345957637,0.0975000000000000033306690738754696212709,0.01749999999999998778754672912327805534005,0.04749999999999998667732370449812151491642,0.1174999999999999933386618522490607574582,-0.01249999999999999722444243843710864894092,-0.08000000000000000166533453693773481063545,0.04500000000000001221245327087672194465995,0.07250000000000000888178419700125232338905,-0.1074999999999999983346654630622651893646,-0.002500000000000002220446049250313080847263,0.04999999999999998889776975374843459576368,-0.07749999999999999944488848768742172978818,-0.08499999999999999222843882762390421703458,-0.01750000000000000166533453693773481063545,0,-0.08749999999999999444888487687421729788184,0.0975000000000000033306690738754696212709,0.08499999999999999222843882762390421703458,-0.1174999999999999933386618522490607574582,0.0899999999999999966693309261245303787291,0.1124999999999999888977697537484345957637,-0.05000000000000000277555756156289135105908,0.03250000000000000111022302462515654042363,-0.02250000000000000610622663543836097232997,-0.08749999999999999444888487687421729788184,-0.07749999999999999944488848768742172978818,0.125,-0.01750000000000000166533453693773481063545,-0.06750000000000000444089209850062616169453,0.1149999999999999911182158029987476766109,0.07500000000000001110223024625156540423632,-0.01750000000000000166533453693773481063545,0.06500000000000000222044604925031308084726,0.05249999999999999111821580299874767661095,0.1224999999999999977795539507496869191527,-0.002500000000000002220446049250313080847263,0.05999999999999999777955395074968691915274,-0.1199999999999999955591079014993738383055,0.02249999999999999222843882762390421703458,0.07250000000000000888178419700125232338905,0.08749999999999999444888487687421729788184,-0.05250000000000000499600361081320443190634,0.125,0.04500000000000001221245327087672194465995,0.07999999999999998778754672912327805534005,-0.1125000000000000027755575615628913510591,0.00750000000000000666133814775093924254179,0.1199999999999999955591079014993738383055,-0.02250000000000000610622663543836097232997,-0.009999999999999995003996389186795568093657,0.01250000000000001110223024625156540423632,-0.1125000000000000027755575615628913510591,-0.07499999999999999722444243843710864894092,-0.05999999999999999777955395074968691915274,-0.1074999999999999983346654630622651893646,0.09500000000000000111022302462515654042363,0.03250000000000000111022302462515654042363,-0.01750000000000000166533453693773481063545,-0.0625,-0.01499999999999999944488848768742172978818,0.01749999999999998778754672912327805534005,0.09249999999999999888977697537484345957637,0.1124999999999999888977697537484345957637,-0.09249999999999999888977697537484345957637,0.08499999999999999222843882762390421703458,0.04000000000000000777156117237609578296542,0.08249999999999999000799277837359113618731,-0.01499999999999999944488848768742172978818,-0.002500000000000002220446049250313080847263,-0.01499999999999999944488848768742172978818,-0.08000000000000000166533453693773481063545,0.04000000000000000777156117237609578296542,-0.0975000000000000033306690738754696212709,0.05249999999999999111821580299874767661095,0.04749999999999998667732370449812151491642,-0.0975000000000000033306690738754696212709,-0.05749999999999999555910790149937383830547,-0.08749999999999999444888487687421729788184,0.005000000000000004440892098500626161694527,0.01250000000000001110223024625156540423632,0.04000000000000000777156117237609578296542,-0.09500000000000000111022302462515654042363,0.08499999999999999222843882762390421703458,0.07250000000000000888178419700125232338905,-0.07000000000000000666133814775093924254179,0.04500000000000001221245327087672194465995,-0.09249999999999999888977697537484345957637,0.07250000000000000888178419700125232338905,-0.07749999999999999944488848768742172978818,0.01999999999999999000799277837359113618731,-0.03250000000000000111022302462515654042363,0.04999999999999998889776975374843459576368,0.125,0,0.04500000000000001221245327087672194465995,0.002500000000000002220446049250313080847263,-0.08249999999999999000799277837359113618731,0.01999999999999999000799277837359113618731,-0.04499999999999999833466546306226518936455,0.07000000000000000666133814775093924254179,-0.1000000000000000055511151231257827021182,0.08499999999999999222843882762390421703458,-0.1000000000000000055511151231257827021182,-0.07000000000000000666133814775093924254179,0.03250000000000000111022302462515654042363,0.09500000000000000111022302462515654042363,0.1199999999999999955591079014993738383055,-0.1000000000000000055511151231257827021182,0.08749999999999999444888487687421729788184,-0.1125000000000000027755575615628913510591,0.05499999999999999333866185224906075745821,-0.05000000000000000277555756156289135105908,-0.08249999999999999000799277837359113618731,-0.07749999999999999944488848768742172978818,0.07500000000000001110223024625156540423632,-0.04499999999999999833466546306226518936455,0.08249999999999999000799277837359113618731,-0.1049999999999999961142194138119521085173,0.1000000000000000055511151231257827021182,-0.08000000000000000166533453693773481063545,0.1199999999999999955591079014993738383055,-0.01499999999999999944488848768742172978818,-0.07250000000000000888178419700125232338905,0.04749999999999998667732370449812151491642,-0.01750000000000000166533453693773481063545,0.05499999999999999333866185224906075745821,-0.01249999999999999722444243843710864894092,-0.1100000000000000005551115123125782702118,-0.01750000000000000166533453693773481063545,0.04000000000000000777156117237609578296542,0.07250000000000000888178419700125232338905,-0.1049999999999999961142194138119521085173,-0.01499999999999999944488848768742172978818,-0.002500000000000002220446049250313080847263,-0.08000000000000000166533453693773481063545,-0.1074999999999999983346654630622651893646,0.1000000000000000055511151231257827021182,0.0350000000000000033306690738754696212709,0.1224999999999999977795539507496869191527,0.1124999999999999888977697537484345957637,0.04000000000000000777156117237609578296542,-0.05999999999999999777955395074968691915274,-0.09500000000000000111022302462515654042363,-0.08499999999999999222843882762390421703458,-0.01499999999999999944488848768742172978818,-0.1174999999999999933386618522490607574582,-0.07499999999999999722444243843710864894092,-0.07499999999999999722444243843710864894092,-0.05000000000000000277555756156289135105908,-0.0899999999999999966693309261245303787291,0,0.08749999999999999444888487687421729788184,-0.005000000000000004440892098500626161694527,0.08499999999999999222843882762390421703458,-0.08499999999999999222843882762390421703458,-0.009999999999999995003996389186795568093657,-0.07250000000000000888178419700125232338905,-0.0274999999999999966693309261245303787291,-0.009999999999999995003996389186795568093657,0.06500000000000000222044604925031308084726,0.02999999999999999888977697537484345957637,0.07500000000000001110223024625156540423632,-0.08499999999999999222843882762390421703458,0.08749999999999999444888487687421729788184,-0.0625,0.00750000000000000666133814775093924254179,0.01500000000000001332267629550187848508358,0.1025000000000000077715611723760957829654,-0.02250000000000000610622663543836097232997,0.002500000000000002220446049250313080847263,0.05249999999999999111821580299874767661095,-0.08000000000000000166533453693773481063545,0.125,-0.07749999999999999944488848768742172978818,-0.002500000000000002220446049250313080847263,-0.08499999999999999222843882762390421703458,-0.04249999999999999611421941381195210851729,0.05499999999999999333866185224906075745821,-0.02000000000000000388578058618804789148271,0.1050000000000000099920072216264088638127,-0.01750000000000000166533453693773481063545,-0.1025000000000000077715611723760957829654,-0.08499999999999999222843882762390421703458,-0.02250000000000000610622663543836097232997,-0.01249999999999999722444243843710864894092,0.1224999999999999977795539507496869191527,0.08249999999999999000799277837359113618731,-0.1150000000000000049960036108132044319063,0.01500000000000001332267629550187848508358,0.06750000000000000444089209850062616169453,-0.04249999999999999611421941381195210851729,-0.0350000000000000033306690738754696212709,-0.02000000000000000388578058618804789148271,0.01999999999999999000799277837359113618731,0.1000000000000000055511151231257827021182,0.1000000000000000055511151231257827021182,-0.03250000000000000111022302462515654042363,0.1099999999999999866773237044981215149164,0.08499999999999999222843882762390421703458,0.01500000000000001332267629550187848508358,0.02249999999999999222843882762390421703458,-0.03250000000000000111022302462515654042363,0.05999999999999999777955395074968691915274,0.0274999999999999966693309261245303787291,-0.05000000000000000277555756156289135105908,-0.01499999999999999944488848768742172978818,0.02999999999999999888977697537484345957637,-0.02000000000000000388578058618804789148271,-0.04750000000000000055511151231257827021182,0.04999999999999998889776975374843459576368,-0.1100000000000000005551115123125782702118,-0.06750000000000000444089209850062616169453,-0.0899999999999999966693309261245303787291,0.04999999999999998889776975374843459576368,0.08749999999999999444888487687421729788184,0.01749999999999998778754672912327805534005,-0.02999999999999999888977697537484345957637,0.07750000000000001332267629550187848508358,-0.009999999999999995003996389186795568093657,0.05249999999999999111821580299874767661095,0.08249999999999999000799277837359113618731,-0.01750000000000000166533453693773481063545,-0.0274999999999999966693309261245303787291,-0.0274999999999999966693309261245303787291,-0.00750000000000000666133814775093924254179,-0.05250000000000000499600361081320443190634,-0.02250000000000000610622663543836097232997,0.02999999999999999888977697537484345957637,0.07999999999999998778754672912327805534005,0.0274999999999999966693309261245303787291,-0.03750000000000000555111512312578270211816,0.02999999999999999888977697537484345957637,0.09249999999999999888977697537484345957637,0.07750000000000001332267629550187848508358,0.01999999999999999000799277837359113618731,0.04999999999999998889776975374843459576368,0.08499999999999999222843882762390421703458,-0.01249999999999999722444243843710864894092,-0.1049999999999999961142194138119521085173,0.01250000000000001110223024625156540423632,0.00750000000000000666133814775093924254179,-0.1049999999999999961142194138119521085173,0.1149999999999999911182158029987476766109,-0.07000000000000000666133814775093924254179,0.01500000000000001332267629550187848508358,0.0274999999999999966693309261245303787291,-0.06500000000000000222044604925031308084726,0.07999999999999998778754672912327805534005,-0.1224999999999999977795539507496869191527,0.01000000000000000888178419700125232338905,0.07500000000000001110223024625156540423632,-0.1074999999999999983346654630622651893646,0.0899999999999999966693309261245303787291,0.05749999999999999555910790149937383830547,-0.02000000000000000388578058618804789148271,-0.00750000000000000666133814775093924254179,-0.1000000000000000055511151231257827021182,-0.06500000000000000222044604925031308084726,0.04000000000000000777156117237609578296542,-0.03250000000000000111022302462515654042363,0.06750000000000000444089209850062616169453,0.01999999999999999000799277837359113618731,-0.08249999999999999000799277837359113618731,-0.00750000000000000666133814775093924254179,-0.0274999999999999966693309261245303787291,-0.01499999999999999944488848768742172978818,-0.05499999999999999333866185224906075745821,-0.005000000000000004440892098500626161694527,0.04999999999999998889776975374843459576368,0.01000000000000000888178419700125232338905,0.08249999999999999000799277837359113618731,0.01999999999999999000799277837359113618731,0.07750000000000001332267629550187848508358,0.05249999999999999111821580299874767661095,0.01250000000000001110223024625156540423632,0.005000000000000004440892098500626161694527,0.1025000000000000077715611723760957829654,-0.05000000000000000277555756156289135105908,0.07000000000000000666133814775093924254179,-0.01750000000000000166533453693773481063545,-0.0975000000000000033306690738754696212709,-0.08000000000000000166533453693773481063545,0.00750000000000000666133814775093924254179,0.1174999999999999933386618522490607574582,0.1174999999999999933386618522490607574582,0.01999999999999999000799277837359113618731,0.01999999999999999000799277837359113618731,0.05999999999999999777955395074968691915274,-0.0625,-0.09249999999999999888977697537484345957637,0.08749999999999999444888487687421729788184,-0.00750000000000000666133814775093924254179,-0.07000000000000000666133814775093924254179,-0.01249999999999999722444243843710864894092,-0.1025000000000000077715611723760957829654,-0.05250000000000000499600361081320443190634,0.01000000000000000888178419700125232338905,0.02249999999999999222843882762390421703458,-0.08749999999999999444888487687421729788184,0.0350000000000000033306690738754696212709,0.07500000000000001110223024625156540423632,-0.07000000000000000666133814775093924254179,-0.07000000000000000666133814775093924254179,0.1224999999999999977795539507496869191527,0.1099999999999999866773237044981215149164,-0.00750000000000000666133814775093924254179,0.07250000000000000888178419700125232338905,-0.1025000000000000077715611723760957829654,0.02499999999999999444888487687421729788184,0.07750000000000001332267629550187848508358,-0.04750000000000000055511151231257827021182,0.07500000000000001110223024625156540423632,0.06500000000000000222044604925031308084726,-0.0350000000000000033306690738754696212709,0.1099999999999999866773237044981215149164,0.01500000000000001332267629550187848508358,0.125,0.07500000000000001110223024625156540423632,-0.01750000000000000166533453693773481063545,-0.02499999999999999444888487687421729788184,0.01749999999999998778754672912327805534005,0.04000000000000000777156117237609578296542,-0.02250000000000000610622663543836097232997,0.08749999999999999444888487687421729788184,0.03750000000000000555111512312578270211816,-0.03999999999999999389377336456163902767003,-0.04499999999999999833466546306226518936455,-0.03750000000000000555111512312578270211816,-0.1049999999999999961142194138119521085173,0.02249999999999999222843882762390421703458,-0.02250000000000000610622663543836097232997,-0.09249999999999999888977697537484345957637,-0.08000000000000000166533453693773481063545,-0.06750000000000000444089209850062616169453,-0.02999999999999999888977697537484345957637,-0.02999999999999999888977697537484345957637,-0.1150000000000000049960036108132044319063,-0.06500000000000000222044604925031308084726,0.0274999999999999966693309261245303787291,-0.002500000000000002220446049250313080847263,0.09249999999999999888977697537484345957637,-0.1224999999999999977795539507496869191527,-0.02000000000000000388578058618804789148271,-0.02250000000000000610622663543836097232997,-0.1125000000000000027755575615628913510591,-0.09249999999999999888977697537484345957637,0.002500000000000002220446049250313080847263,0.1075000000000000122124532708767219446599,0.1025000000000000077715611723760957829654,-0.04249999999999999611421941381195210851729,-0.05499999999999999333866185224906075745821,-0.1074999999999999983346654630622651893646,0.1224999999999999977795539507496869191527,-0.0625,-0.1174999999999999933386618522490607574582,-0.03999999999999999389377336456163902767003,-0.1074999999999999983346654630622651893646,0.01500000000000001332267629550187848508358,0.07750000000000001332267629550187848508358,-0.02999999999999999888977697537484345957637,0.05749999999999999555910790149937383830547,0.08249999999999999000799277837359113618731,0,-0.08749999999999999444888487687421729788184,-0.01499999999999999944488848768742172978818,0.07250000000000000888178419700125232338905,-0.009999999999999995003996389186795568093657,-0.005000000000000004440892098500626161694527,0.09249999999999999888977697537484345957637,0.1099999999999999866773237044981215149164,0.07750000000000001332267629550187848508358,0.01749999999999998778754672912327805534005,-0.09249999999999999888977697537484345957637,0.04500000000000001221245327087672194465995,0.0625,0.1025000000000000077715611723760957829654,-0.0350000000000000033306690738754696212709,-0.07250000000000000888178419700125232338905,-0.04750000000000000055511151231257827021182,-0.0975000000000000033306690738754696212709,0.0899999999999999966693309261245303787291,-0.02999999999999999888977697537484345957637,-0.08249999999999999000799277837359113618731,0.0975000000000000033306690738754696212709,-0.01249999999999999722444243843710864894092,0.125,0.1224999999999999977795539507496869191527,-0.009999999999999995003996389186795568093657,-0.07000000000000000666133814775093924254179,0.125,0.0274999999999999966693309261245303787291,0.0975000000000000033306690738754696212709,0.01749999999999998778754672912327805534005,-0.02999999999999999888977697537484345957637,-0.0975000000000000033306690738754696212709,0.01999999999999999000799277837359113618731,0.01999999999999999000799277837359113618731,-0.03750000000000000555111512312578270211816,-0.0274999999999999966693309261245303787291,-0.01499999999999999944488848768742172978818,0.01250000000000001110223024625156540423632,0.09500000000000000111022302462515654042363,0.05999999999999999777955395074968691915274,-0.01499999999999999944488848768742172978818,0.09500000000000000111022302462515654042363,-0.1049999999999999961142194138119521085173,0.05499999999999999333866185224906075745821,-0.1224999999999999977795539507496869191527,-0.01750000000000000166533453693773481063545,-0.0350000000000000033306690738754696212709,0.1224999999999999977795539507496869191527,-0.02000000000000000388578058618804789148271,-0.01249999999999999722444243843710864894092,-0.04750000000000000055511151231257827021182,0.1025000000000000077715611723760957829654,0.05999999999999999777955395074968691915274,-0.07250000000000000888178419700125232338905,0.05499999999999999333866185224906075745821,-0.1074999999999999983346654630622651893646,-0.05000000000000000277555756156289135105908,-0.01499999999999999944488848768742172978818,-0.03999999999999999389377336456163902767003,0.07500000000000001110223024625156540423632,-0.005000000000000004440892098500626161694527,0.1149999999999999911182158029987476766109,-0.03750000000000000555111512312578270211816,0.08499999999999999222843882762390421703458,0.09249999999999999888977697537484345957637,0.08749999999999999444888487687421729788184,-0.07000000000000000666133814775093924254179,-0.08499999999999999222843882762390421703458,0.09249999999999999888977697537484345957637,-0.005000000000000004440892098500626161694527,-0.1174999999999999933386618522490607574582,0.04749999999999998667732370449812151491642,0.0899999999999999966693309261245303787291,0.0899999999999999966693309261245303787291,0.04999999999999998889776975374843459576368,-0.1000000000000000055511151231257827021182,-0.06750000000000000444089209850062616169453,0.02499999999999999444888487687421729788184,0.04999999999999998889776975374843459576368,-0.02000000000000000388578058618804789148271,-0.009999999999999995003996389186795568093657,-0.002500000000000002220446049250313080847263,-0.03750000000000000555111512312578270211816,-0.03999999999999999389377336456163902767003,-0.05499999999999999333866185224906075745821,0.08749999999999999444888487687421729788184,0.1050000000000000099920072216264088638127,-0.02999999999999999888977697537484345957637,0.01749999999999998778754672912327805534005,-0.08749999999999999444888487687421729788184,-0.08000000000000000166533453693773481063545,-0.07250000000000000888178419700125232338905,0.1025000000000000077715611723760957829654,0.02999999999999999888977697537484345957637,0.09249999999999999888977697537484345957637,-0.07499999999999999722444243843710864894092,-0.02250000000000000610622663543836097232997,-0.06750000000000000444089209850062616169453,0.01999999999999999000799277837359113618731,-0.08000000000000000166533453693773481063545,-0.08499999999999999222843882762390421703458,0.05999999999999999777955395074968691915274,0.0625,0.00750000000000000666133814775093924254179,-0.08499999999999999222843882762390421703458,0.0975000000000000033306690738754696212709,0.0975000000000000033306690738754696212709,-0.09500000000000000111022302462515654042363,0.01000000000000000888178419700125232338905,0.0274999999999999966693309261245303787291,-0.0274999999999999966693309261245303787291,0.05749999999999999555910790149937383830547,0.07500000000000001110223024625156540423632,0.09500000000000000111022302462515654042363,0.0350000000000000033306690738754696212709,-0.02250000000000000610622663543836097232997,-0.05250000000000000499600361081320443190634,0.1124999999999999888977697537484345957637,-0.009999999999999995003996389186795568093657,0.01000000000000000888178419700125232338905,0.02249999999999999222843882762390421703458,0.1174999999999999933386618522490607574582,0.1149999999999999911182158029987476766109,-0.1049999999999999961142194138119521085173,0.05249999999999999111821580299874767661095,0.1025000000000000077715611723760957829654,0.07000000000000000666133814775093924254179,0.1050000000000000099920072216264088638127,0.1050000000000000099920072216264088638127,0.1075000000000000122124532708767219446599,-0.09249999999999999888977697537484345957637,-0.06500000000000000222044604925031308084726,-0.08749999999999999444888487687421729788184,-0.02250000000000000610622663543836097232997,-0.01499999999999999944488848768742172978818,0.04250000000000000999200722162640886381269,-0.04249999999999999611421941381195210851729,-0.03750000000000000555111512312578270211816,-0.07749999999999999944488848768742172978818,0.05499999999999999333866185224906075745821,-0.04499999999999999833466546306226518936455,-0.01249999999999999722444243843710864894092,-0.05999999999999999777955395074968691915274,0.1149999999999999911182158029987476766109,0.1025000000000000077715611723760957829654,-0.1049999999999999961142194138119521085173,-0.09500000000000000111022302462515654042363,-0.01249999999999999722444243843710864894092,0.04749999999999998667732370449812151491642,-0.1100000000000000005551115123125782702118,0.1050000000000000099920072216264088638127,-0.01499999999999999944488848768742172978818,0.1174999999999999933386618522490607574582,-0.05250000000000000499600361081320443190634,0.1224999999999999977795539507496869191527,-0.02000000000000000388578058618804789148271,-0.08749999999999999444888487687421729788184,0.08249999999999999000799277837359113618731,-0.05499999999999999333866185224906075745821,-0.04750000000000000055511151231257827021182,0.04749999999999998667732370449812151491642,0.1149999999999999911182158029987476766109,0.06500000000000000222044604925031308084726,0.01250000000000001110223024625156540423632,-0.09500000000000000111022302462515654042363,0.00750000000000000666133814775093924254179,0,0.07000000000000000666133814775093924254179,0.1075000000000000122124532708767219446599,-0.0274999999999999966693309261245303787291,-0.1199999999999999955591079014993738383055,0.01999999999999999000799277837359113618731,0.07500000000000001110223024625156540423632,-0.08499999999999999222843882762390421703458,0.09500000000000000111022302462515654042363,0.04999999999999998889776975374843459576368,0.1025000000000000077715611723760957829654,0.1224999999999999977795539507496869191527,0.1149999999999999911182158029987476766109,-0.07250000000000000888178419700125232338905,0.07000000000000000666133814775093924254179,-0.1100000000000000005551115123125782702118,0.01250000000000001110223024625156540423632,-0.07749999999999999944488848768742172978818,0.02999999999999999888977697537484345957637,-0.1100000000000000005551115123125782702118,-0.09249999999999999888977697537484345957637,-0.05749999999999999555910790149937383830547,0.04250000000000000999200722162640886381269,0.0625,-0.05499999999999999333866185224906075745821,0.02999999999999999888977697537484345957637,0.03250000000000000111022302462515654042363,-0.009999999999999995003996389186795568093657,0.02249999999999999222843882762390421703458,-0.1074999999999999983346654630622651893646,-0.005000000000000004440892098500626161694527,0.08249999999999999000799277837359113618731,0.05499999999999999333866185224906075745821,0.07250000000000000888178419700125232338905,-0.08249999999999999000799277837359113618731,0.125,-0.04750000000000000055511151231257827021182,-0.00750000000000000666133814775093924254179,0.02249999999999999222843882762390421703458,-0.03250000000000000111022302462515654042363,-0.08249999999999999000799277837359113618731,0.07250000000000000888178419700125232338905,0.00750000000000000666133814775093924254179,-0.03750000000000000555111512312578270211816,0.09500000000000000111022302462515654042363,-0.08000000000000000166533453693773481063545,-0.1100000000000000005551115123125782702118,0,0.1224999999999999977795539507496869191527,-0.08499999999999999222843882762390421703458,-0.1199999999999999955591079014993738383055,0.04000000000000000777156117237609578296542,-0.02499999999999999444888487687421729788184,-0.1000000000000000055511151231257827021182,-0.09500000000000000111022302462515654042363,-0.05250000000000000499600361081320443190634,-0.0350000000000000033306690738754696212709,-0.05499999999999999333866185224906075745821,0.02999999999999999888977697537484345957637,-0.1025000000000000077715611723760957829654,0.01999999999999999000799277837359113618731,-0.08749999999999999444888487687421729788184,-0.02000000000000000388578058618804789148271,0.03750000000000000555111512312578270211816,0.1050000000000000099920072216264088638127,0.07999999999999998778754672912327805534005,-0.07749999999999999944488848768742172978818,0.125,-0.07000000000000000666133814775093924254179,0.01000000000000000888178419700125232338905,0.07250000000000000888178419700125232338905,-0.1000000000000000055511151231257827021182,-0.1125000000000000027755575615628913510591,0.03750000000000000555111512312578270211816,-0.09500000000000000111022302462515654042363,-0.1100000000000000005551115123125782702118,0.0625,0.1025000000000000077715611723760957829654,-0.1049999999999999961142194138119521085173,-0.06500000000000000222044604925031308084726,-0.06500000000000000222044604925031308084726,0.1099999999999999866773237044981215149164,-0.05000000000000000277555756156289135105908,0.125,-0.03250000000000000111022302462515654042363,0.06500000000000000222044604925031308084726,0.07750000000000001332267629550187848508358,-0.08749999999999999444888487687421729788184,0.07999999999999998778754672912327805534005,-0.1199999999999999955591079014993738383055,-0.00750000000000000666133814775093924254179,0.1224999999999999977795539507496869191527,0.0975000000000000033306690738754696212709,0.09500000000000000111022302462515654042363,-0.07000000000000000666133814775093924254179,-0.1125000000000000027755575615628913510591,-0.06500000000000000222044604925031308084726,0.01999999999999999000799277837359113618731,-0.1000000000000000055511151231257827021182,0.04999999999999998889776975374843459576368,-0.1074999999999999983346654630622651893646,0.05749999999999999555910790149937383830547,-0.05749999999999999555910790149937383830547,0.04000000000000000777156117237609578296542,0.002500000000000002220446049250313080847263,-0.0625,0.02499999999999999444888487687421729788184,0,-0.03750000000000000555111512312578270211816,-0.03250000000000000111022302462515654042363,0.0975000000000000033306690738754696212709,-0.00750000000000000666133814775093924254179,0.03750000000000000555111512312578270211816,-0.02999999999999999888977697537484345957637,0.00750000000000000666133814775093924254179,-0.01499999999999999944488848768742172978818,-0.08749999999999999444888487687421729788184,-0.07250000000000000888178419700125232338905,0.07999999999999998778754672912327805534005,0.02249999999999999222843882762390421703458,-0.04750000000000000055511151231257827021182,0.06500000000000000222044604925031308084726,0.1075000000000000122124532708767219446599,-0.009999999999999995003996389186795568093657,0.01250000000000001110223024625156540423632,0.06750000000000000444089209850062616169453,0.03750000000000000555111512312578270211816,-0.04249999999999999611421941381195210851729,0.1075000000000000122124532708767219446599,-0.0274999999999999966693309261245303787291,0.02249999999999999222843882762390421703458,-0.07000000000000000666133814775093924254179,-0.1100000000000000005551115123125782702118,0.1174999999999999933386618522490607574582,0.125,-0.1224999999999999977795539507496869191527,-0.0625,0.0899999999999999966693309261245303787291,0.01999999999999999000799277837359113618731,-0.07000000000000000666133814775093924254179,-0.05000000000000000277555756156289135105908,0.02499999999999999444888487687421729788184,0.1050000000000000099920072216264088638127,-0.03750000000000000555111512312578270211816,-0.05499999999999999333866185224906075745821,0.09249999999999999888977697537484345957637,0.05249999999999999111821580299874767661095,0.01000000000000000888178419700125232338905,0.05499999999999999333866185224906075745821,0.07500000000000001110223024625156540423632,-0.02499999999999999444888487687421729788184,0.1124999999999999888977697537484345957637,0.01250000000000001110223024625156540423632,-0.1224999999999999977795539507496869191527,-0.02499999999999999444888487687421729788184,-0.05250000000000000499600361081320443190634,0.06750000000000000444089209850062616169453,-0.0274999999999999966693309261245303787291,0.01000000000000000888178419700125232338905,0.01250000000000001110223024625156540423632,0.01250000000000001110223024625156540423632,-0.0975000000000000033306690738754696212709,-0.04499999999999999833466546306226518936455,0.08499999999999999222843882762390421703458,0.01999999999999999000799277837359113618731,0.125,-0.1025000000000000077715611723760957829654,-0.09500000000000000111022302462515654042363,0.1075000000000000122124532708767219446599,0.1000000000000000055511151231257827021182,0.0975000000000000033306690738754696212709,0.0975000000000000033306690738754696212709,-0.1025000000000000077715611723760957829654,0.05249999999999999111821580299874767661095,0.06750000000000000444089209850062616169453,-0.02499999999999999444888487687421729788184,-0.06750000000000000444089209850062616169453,-0.1000000000000000055511151231257827021182,-0.005000000000000004440892098500626161694527,0.1199999999999999955591079014993738383055,-0.07000000000000000666133814775093924254179,0.1075000000000000122124532708767219446599,0.07999999999999998778754672912327805534005,0.07750000000000001332267629550187848508358,0.0975000000000000033306690738754696212709,0.00750000000000000666133814775093924254179,0.08749999999999999444888487687421729788184,-0.02499999999999999444888487687421729788184,0.1224999999999999977795539507496869191527,-0.1125000000000000027755575615628913510591,-0.07250000000000000888178419700125232338905,0.03750000000000000555111512312578270211816,0.04749999999999998667732370449812151491642,-0.08749999999999999444888487687421729788184,0.01500000000000001332267629550187848508358,0.04500000000000001221245327087672194465995,0.1050000000000000099920072216264088638127,-0.05000000000000000277555756156289135105908,0.05999999999999999777955395074968691915274,0.1075000000000000122124532708767219446599,0.0350000000000000033306690738754696212709,-0.1025000000000000077715611723760957829654,-0.04249999999999999611421941381195210851729,-0.02250000000000000610622663543836097232997,-0.1049999999999999961142194138119521085173,0.01250000000000001110223024625156540423632,-0.005000000000000004440892098500626161694527,-0.01750000000000000166533453693773481063545,0.02249999999999999222843882762390421703458,0.02249999999999999222843882762390421703458,-0.1025000000000000077715611723760957829654,0.1149999999999999911182158029987476766109,0.04999999999999998889776975374843459576368,0.06750000000000000444089209850062616169453,0.09500000000000000111022302462515654042363,-0.08749999999999999444888487687421729788184,-0.0975000000000000033306690738754696212709,0.04000000000000000777156117237609578296542,-0.07000000000000000666133814775093924254179,0.1025000000000000077715611723760957829654,-0.002500000000000002220446049250313080847263,-0.005000000000000004440892098500626161694527,-0.01750000000000000166533453693773481063545,0.03750000000000000555111512312578270211816,-0.1224999999999999977795539507496869191527,-0.07000000000000000666133814775093924254179,0.005000000000000004440892098500626161694527,0.1199999999999999955591079014993738383055,-0.07499999999999999722444243843710864894092,0.05249999999999999111821580299874767661095,-0.05749999999999999555910790149937383830547,-0.1125000000000000027755575615628913510591,0.07999999999999998778754672912327805534005,-0.1150000000000000049960036108132044319063,-0.05000000000000000277555756156289135105908,-0.02250000000000000610622663543836097232997,-0.08749999999999999444888487687421729788184,-0.1174999999999999933386618522490607574582,0.0899999999999999966693309261245303787291,0.01999999999999999000799277837359113618731,0.09500000000000000111022302462515654042363,-0.002500000000000002220446049250313080847263,0.05749999999999999555910790149937383830547,-0.005000000000000004440892098500626161694527,-0.1150000000000000049960036108132044319063,-0.06500000000000000222044604925031308084726,0.07250000000000000888178419700125232338905,0.09500000000000000111022302462515654042363,0.03250000000000000111022302462515654042363,0.1075000000000000122124532708767219446599,-0.1000000000000000055511151231257827021182,0.05999999999999999777955395074968691915274,-0.01750000000000000166533453693773481063545,0.07500000000000001110223024625156540423632,-0.0274999999999999966693309261245303787291,-0.08000000000000000166533453693773481063545,-0.002500000000000002220446049250313080847263,0.1000000000000000055511151231257827021182,-0.02999999999999999888977697537484345957637,-0.07749999999999999944488848768742172978818,0.05999999999999999777955395074968691915274,0.07999999999999998778754672912327805534005,0.07750000000000001332267629550187848508358,-0.02499999999999999444888487687421729788184,-0.05749999999999999555910790149937383830547,0.03250000000000000111022302462515654042363,0.00750000000000000666133814775093924254179,-0.1025000000000000077715611723760957829654,-0.1100000000000000005551115123125782702118,0.08499999999999999222843882762390421703458,0,0.1199999999999999955591079014993738383055,-0.0625,-0.002500000000000002220446049250313080847263,0.005000000000000004440892098500626161694527,-0.1174999999999999933386618522490607574582,-0.0350000000000000033306690738754696212709,-0.05250000000000000499600361081320443190634,0.01000000000000000888178419700125232338905,-0.05749999999999999555910790149937383830547,-0.05000000000000000277555756156289135105908,0.08749999999999999444888487687421729788184,0.1099999999999999866773237044981215149164,-0.05250000000000000499600361081320443190634,0.07500000000000001110223024625156540423632,0.09500000000000000111022302462515654042363,-0.02250000000000000610622663543836097232997,0.005000000000000004440892098500626161694527,0,-0.04750000000000000055511151231257827021182,-0.06500000000000000222044604925031308084726,0.00750000000000000666133814775093924254179,0.05999999999999999777955395074968691915274,0.1224999999999999977795539507496869191527,-0.06750000000000000444089209850062616169453,0.1025000000000000077715611723760957829654,-0.0899999999999999966693309261245303787291,-0.0625,0.1174999999999999933386618522490607574582,-0.1025000000000000077715611723760957829654,-0.1049999999999999961142194138119521085173,0.04749999999999998667732370449812151491642,-0.01499999999999999944488848768742172978818,-0.01499999999999999944488848768742172978818,0.02499999999999999444888487687421729788184,0.01000000000000000888178419700125232338905,0.02249999999999999222843882762390421703458,-0.05749999999999999555910790149937383830547,0.01999999999999999000799277837359113618731,0.1174999999999999933386618522490607574582,0.01749999999999998778754672912327805534005,-0.07000000000000000666133814775093924254179,0.1149999999999999911182158029987476766109,-0.09500000000000000111022302462515654042363,0.01500000000000001332267629550187848508358,0.07500000000000001110223024625156540423632,0.0899999999999999966693309261245303787291,0.03750000000000000555111512312578270211816,-0.0625,-0.04750000000000000055511151231257827021182,-0.01499999999999999944488848768742172978818,0.1000000000000000055511151231257827021182,0.0899999999999999966693309261245303787291,0.05749999999999999555910790149937383830547,0.1050000000000000099920072216264088638127,-0.04750000000000000055511151231257827021182,-0.07250000000000000888178419700125232338905,0.07500000000000001110223024625156540423632,0.0350000000000000033306690738754696212709,0.1000000000000000055511151231257827021182,0.01250000000000001110223024625156540423632,0.01749999999999998778754672912327805534005,0.04999999999999998889776975374843459576368,-0.1074999999999999983346654630622651893646,-0.08249999999999999000799277837359113618731,-0.1100000000000000005551115123125782702118,0.08249999999999999000799277837359113618731,-0.08249999999999999000799277837359113618731,0.1075000000000000122124532708767219446599,-0.1224999999999999977795539507496869191527,-0.07250000000000000888178419700125232338905,-0.0274999999999999966693309261245303787291,-0.09249999999999999888977697537484345957637,-0.04499999999999999833466546306226518936455,-0.09500000000000000111022302462515654042363,-0.03999999999999999389377336456163902767003,0.04250000000000000999200722162640886381269,0.1224999999999999977795539507496869191527,0.1224999999999999977795539507496869191527,-0.009999999999999995003996389186795568093657,0.07500000000000001110223024625156540423632,-0.00750000000000000666133814775093924254179,-0.1100000000000000005551115123125782702118,-0.05749999999999999555910790149937383830547,0.01250000000000001110223024625156540423632,0.04500000000000001221245327087672194465995,-0.07749999999999999944488848768742172978818,-0.05999999999999999777955395074968691915274,0.09500000000000000111022302462515654042363,0.125,0.03750000000000000555111512312578270211816,0.08499999999999999222843882762390421703458,-0.0899999999999999966693309261245303787291,0.07750000000000001332267629550187848508358,0.02499999999999999444888487687421729788184,0.01000000000000000888178419700125232338905,0.0350000000000000033306690738754696212709,0.1075000000000000122124532708767219446599,-0.06750000000000000444089209850062616169453,0.06750000000000000444089209850062616169453,0.01250000000000001110223024625156540423632,-0.07000000000000000666133814775093924254179,-0.05999999999999999777955395074968691915274,0.06500000000000000222044604925031308084726,0.09500000000000000111022302462515654042363,0.06750000000000000444089209850062616169453,-0.1049999999999999961142194138119521085173,-0.1150000000000000049960036108132044319063,0.0350000000000000033306690738754696212709,0.05999999999999999777955395074968691915274,-0.005000000000000004440892098500626161694527,-0.02499999999999999444888487687421729788184,0.05749999999999999555910790149937383830547,-0.05499999999999999333866185224906075745821,-0.08000000000000000166533453693773481063545,0.1174999999999999933386618522490607574582,-0.05749999999999999555910790149937383830547,-0.01499999999999999944488848768742172978818,0.04500000000000001221245327087672194465995,-0.0274999999999999966693309261245303787291,-0.0975000000000000033306690738754696212709,-0.1150000000000000049960036108132044319063,-0.01249999999999999722444243843710864894092,-0.07499999999999999722444243843710864894092,0.1000000000000000055511151231257827021182,0.02999999999999999888977697537484345957637,0.1199999999999999955591079014993738383055,0.04749999999999998667732370449812151491642,0.01749999999999998778754672912327805534005,-0.08000000000000000166533453693773481063545,-0.01499999999999999944488848768742172978818,-0.1174999999999999933386618522490607574582,-0.1174999999999999933386618522490607574582,0.125,0.0274999999999999966693309261245303787291,0.04250000000000000999200722162640886381269,-0.05250000000000000499600361081320443190634,-0.09249999999999999888977697537484345957637,-0.1100000000000000005551115123125782702118,-0.03999999999999999389377336456163902767003,0.05749999999999999555910790149937383830547,0.06750000000000000444089209850062616169453,0.07500000000000001110223024625156540423632,-0.05000000000000000277555756156289135105908,-0.09249999999999999888977697537484345957637,0.1199999999999999955591079014993738383055,0.01999999999999999000799277837359113618731,-0.01249999999999999722444243843710864894092,-0.05999999999999999777955395074968691915274,-0.07749999999999999944488848768742172978818,0.05249999999999999111821580299874767661095,-0.03750000000000000555111512312578270211816,0.01999999999999999000799277837359113618731,0.07250000000000000888178419700125232338905,0.0350000000000000033306690738754696212709,-0.03250000000000000111022302462515654042363,0.1025000000000000077715611723760957829654,-0.05999999999999999777955395074968691915274,0.02499999999999999444888487687421729788184,0.01500000000000001332267629550187848508358,0.06750000000000000444089209850062616169453,0.005000000000000004440892098500626161694527,0.06750000000000000444089209850062616169453,0.002500000000000002220446049250313080847263,-0.1028591269649903189309370077353378292173,-0.07602631123499284382383223146462114527822,0.08944271909999154668291510006383759900928,-0.1654690303349844460178985627862857654691,0.03130495168499705660458687361824559047818,0.04472135954999575946366974221746204420924,-0.04919349550499535483893964737944770604372,0.02236067977499792136519829455210128799081,-0.1341640786499873616577360735391266644001,-0.1118033988749894819259012024303956422955,-0.09391485505499116981376062085473677143455,-0.05813776741499454558947945770341902971268,-0.1207476707849886310430775893109967000782,-0.004472135954999595375269905161985661834478,-0.01341640786499875837023409985704347491264,-0.1967739820199814748669098207756178453565,-0.2057182539299806378618740154706756584346,0.2012461179749810702421797259376035071909,-0.0268328157299974612293169684562599286437,0.1565247584249852830229343680912279523909,-0.01788854381999829823435277376120211556554,-0.1699411662899840136375928523193579167128,-0.1296919426949877940380417840060545131564,-0.09391485505499116981376062085473677143455,0.03577708763999662422428116315131774172187,-0.1431083505599865524082758838630979880691,-0.05813776741499454558947945770341902971268,0.1878297101099823673830968573383870534599,0.02236067977499792136519829455210128799081,-0.2146625258399798008568382101657334715128,0.06260990336999414096474936286540469154716,0.08049844718999246695467775225552031770349,-0.03130495168499705660458687361824559047818,-0.1028591269649903189309370077353378292173,-0.1654690303349844460178985627862857654691,0.01788854381999832598992838939011562615633,-0.1788854381999831766325570470144157297909,0.09391485505499116981376062085473677143455,-0.04919349550499535483893964737944770604372,0.1833575741549827442522513365474878810346,-0.1118033988749894819259012024303956422955,0.1699411662899840413931684679482714273036,-0.004472135954999595375269905161985661834478,0.1878297101099823673830968573383870534599,0.09391485505499116981376062085473677143455,-0.2012461179749810702421797259376035071909,-0.04024922359499621959955106831330340355635,-0.04024922359499621959955106831330340355635,-0.1788854381999831766325570470144157297909,-0.1073312629199899004284191050828667357564,0.1967739820199814471113342051467043347657,0.07155417527999327620413794193154899403453,0.0536656314599949502142095525414333678782,0.03130495168499705660458687361824559047818,0.1609968943799848506426286576243001036346,-0.1520526224699856876476644629292422905564,0.1788854381999831766325570470144157297909,0.2191346617949793962321081153277191333473,-0.1788854381999831766325570470144157297909,-0.09391485505499116981376062085473677143455,0.2012461179749810702421797259376035071909,0.1252198067399882541739231101018958725035,-0.1923018460649819072472155312425456941128,0.03577708763999662422428116315131774172187,0.1923018460649819350027911468714592047036,-0.1699411662899840136375928523193579167128,0.08497058314499197906322081053076544776559,0.1028591269649903050531491999208810739219,0.2191346617949793962321081153277191333473,0.06260990336999414096474936286540469154716,-0.01788854381999829823435277376120211556554,0.04472135954999575946366974221746204420924,0.07155417527999327620413794193154899403453,-0.01341640786499875837023409985704347491264,-0.1654690303349844460178985627862857654691,0.08049844718999246695467775225552031770349,0.08497058314499197906322081053076544776559,0.1609968943799848506426286576243001036346,0.06260990336999414096474936286540469154716,0.2101903898849802054815683050037478096783,0.1520526224699856598920888473003287799656,-0.03130495168499705660458687361824559047818,-0.1788854381999831766325570470144157297909,-0.09391485505499116981376062085473677143455,-0.03577708763999665197985677878023125231266,0.06708203932499370858444365239847684279084,-0.09391485505499116981376062085473677143455,-0.03130495168499705660458687361824559047818,0.1296919426949878217936173996349680237472,-0.1923018460649819072472155312425456941128,-0.1565247584249852830229343680912279523909,0.1788854381999831766325570470144157297909,0,-0.1565247584249852830229343680912279523909,0.004472135954999595375269905161985661834478,0.1609968943799848506426286576243001036346,0.004472135954999595375269905161985661834478,-0.1028591269649903189309370077353378292173,0.1118033988749894958036890102448523975909,0.1833575741549827442522513365474878810346,0.1520526224699856598920888473003287799656,-0.1162755348299890634233832997779245488346,0.06260990336999414096474936286540469154716,0.06260990336999414096474936286540469154716,0.01341640786499875837023409985704347491264,0.09391485505499116981376062085473677143455,0.1386362146049869570330059787011123262346,-0.1833575741549827442522513365474878810346,0.1073312629199898726728434894539532251656,-0.004472135954999595375269905161985661834478,-0.03130495168499705660458687361824559047818,0.004472135954999595375269905161985661834478,-0.09838699100999073743345491038780892267823,-0.09391485505499116981376062085473677143455,-0.2012461179749810702421797259376035071909,-0.06708203932499370858444365239847684279084,-0.06708203932499370858444365239847684279084,-0.1520526224699856876476644629292422905564,0.04024922359499619184397545268438989296556,-0.1788854381999831766325570470144157297909,0,-0.06260990336999411320917374723649118095636,-0.06260990336999411320917374723649118095636,-0.1878297101099823396275212417094735428691,-0.1565247584249852830229343680912279523909,0.1565247584249852830229343680912279523909,0.1162755348299890634233832997779245488346,0.08049844718999246695467775225552031770349,0.1520526224699856598920888473003287799656,0.2057182539299806378618740154706756584346,0.004472135954999595375269905161985661834478,0.09391485505499116981376062085473677143455,-0.2146625258399798008568382101657334715128,-0.0804984471899924114435265209976932965219,0.08049844718999246695467775225552031770349,-0.06708203932499370858444365239847684279084,0.03577708763999662422428116315131774172187,0.1073312629199898726728434894539532251656,-0.2191346617949793962321081153277191333473,0.214662525839979773101262594536819960922,0.01341640786499875837023409985704347491264,-0.1699411662899840136375928523193579167128,-0.1744133022449835812572871418524300679564,0.07602631123499284382383223146462114527822,0.1162755348299890634233832997779245488346,0,-0.04024922359499621959955106831330340355635,0.1520526224699856598920888473003287799656,-0.08497058314499200681879642615967895835638,0.04919349550499538259451526300836121663451,-0.1341640786499873616577360735391266644001,-0.1878297101099823396275212417094735428691,0.01788854381999832598992838939011562615633,0.0268328157299974889848925840851734392345,0.1386362146049869570330059787011123262346,0.02236067977499792136519829455210128799081,-0.08944271909999160219406633132166462019086,0.0268328157299974889848925840851734392345,0.07155417527999327620413794193154899403453,-0.1520526224699856876476644629292422905564,0.01341640786499875837023409985704347491264,0.1788854381999831766325570470144157297909,-0.05813776741499454558947945770341902971268,0,0.06260990336999414096474936286540469154716,-0.0536656314599949502142095525414333678782,-0.1923018460649819072472155312425456941128,0.03577708763999662422428116315131774172187,-0.1923018460649819072472155312425456941128,0.01788854381999832598992838939011562615633,-0.2012461179749810702421797259376035071909,-0.0804984471899924114435265209976932965219,0.1609968943799848506426286576243001036346,-0.09838699100999073743345491038780892267823,-0.05813776741499454558947945770341902971268,-0.0804984471899924114435265209976932965219,0.004472135954999595375269905161985661834478,0.01341640786499875837023409985704347491264,-0.2146625258399798008568382101657334715128,-0.1565247584249852830229343680912279523909,0.08497058314499197906322081053076544776559,0,0.1833575741549827442522513365474878810346,0.1609968943799848506426286576243001036346,-0.06708203932499370858444365239847684279084,-0.1118033988749894819259012024303956422955,-0.1833575741549827442522513365474878810346,-0.1788854381999831766325570470144157297909,-0.1565247584249852830229343680912279523909,-0.0804984471899924114435265209976932965219,-0.2057182539299806378618740154706756584346,-0.09838699100999073743345491038780892267823,-0.1475804865149861200279701733961701393127,0.07602631123499284382383223146462114527822,0.1923018460649819350027911468714592047036,-0.04919349550499535483893964737944770604372,0.07155417527999327620413794193154899403453,0.0268328157299974889848925840851734392345,-0.09391485505499116981376062085473677143455,-0.0268328157299974612293169684562599286437,0.214662525839979773101262594536819960922,0.1788854381999831766325570470144157297909,-0.0268328157299974612293169684562599286437,0.1073312629199898726728434894539532251656,0.214662525839979773101262594536819960922,0.1431083505599865246527002682341844774783,0.02236067977499792136519829455210128799081,-0.1073312629199899004284191050828667357564,-0.03577708763999665197985677878023125231266,0.07155417527999327620413794193154899403453