-0.05749999999999999555910790149937383830547,0.1075000000000000122124532708767219446599,-0.04750000000000000055511151231257827021182,0.1099999999999999866773237044981215149164,-0.01249999999999999722444243843710864894092,-0.1150000000000000049960036108132044319063,-0.04499999999999999833466546306226518936455,0.1199999999999999955591079014993738383055,0.09249999999999999888977697537484345957637,0.08749999999999999444888487687421729788184,0.002500000000000002220446049250313080847263,0.06500000000000000222044604925031308084726,-0.05250000000000000499600361081320443190634,-0.04249999999999999611421941381195210851729,0.03750000000000000555111512312578270211816,0.1174999999999999933386618522490607574582,0.05249999999999999111821580299874767661095,-0.002500000000000002220446049250313080847263,0.04500000000000001221245327087672194465995,0.1099999999999999866773237044981215149164,-0.002500000000000002220446049250313080847263,-0.05000000000000000277555756156289135105908,-0.04249999999999999611421941381195210851729,-0.04750000000000000055511151231257827021182,0.01500000000000001332267629550187848508358,-0.04499999999999999833466546306226518936455,0.05249999999999999111821580299874767661095,-0.08749999999999999444888487687421729788184,0.05749999999999999555910790149937383830547,-0.01750000000000000166533453693773481063545,0.04500000000000001221245327087672194465995,-0.05000000000000000277555756156289135105908,0.04500000000000001221245327087672194465995,-0.09249999999999999888977697537484345957637,-0.07499999999999999722444243843710864894092,0.08749999999999999444888487687421729788184,0.1050000000000000099920072216264088638127,-0.01249999999999999722444243843710864894092,-0.02499999999999999444888487687421729788184,0.0899999999999999966693309261245303787291,-0.07000000000000000666133814775093924254179,-0.07749999999999999944488848768742172978818,0.08499999999999999222843882762390421703458,-0.07749999999999999944488848768742172978818,-0.00750000000000000666133814775093924254179,0.1000000000000000055511151231257827021182,0.1050000000000000099920072216264088638127,-0.00750000000000000666133814775093924254179,-0.02999999999999999888977697537484345957637,-0.0899999999999999966693309261245303787291,0.04250000000000000999200722162640886381269,0.02999999999999999888977697537484345957637,0.00750000000000000666133814775093924254179,-0.1100000000000000005551115123125782702118,0.1075000000000000122124532708767219446599,0.02499999999999999444888487687421729788184,-0.05000000000000000277555756156289135105908,-0.1224999999999999977795539507496869191527,0.0350000000000000033306690738754696212709,-0.1125000000000000027755575615628913510591,0.08499999999999999222843882762390421703458,-0.03750000000000000555111512312578270211816,-0.1025000000000000077715611723760957829654,-0.0975000000000000033306690738754696212709,0.1124999999999999888977697537484345957637,0.04999999999999998889776975374843459576368,0.005000000000000004440892098500626161694527,-0.04249999999999999611421941381195210851729,0.1000000000000000055511151231257827021182,0.1099999999999999866773237044981215149164,-0.04750000000000000055511151231257827021182,0.02999999999999999888977697537484345957637,0.02499999999999999444888487687421729788184,0.04000000000000000777156117237609578296542,0.04000000000000000777156117237609578296542,-0.1125000000000000027755575615628913510591,0.05999999999999999777955395074968691915274,-0.0274999999999999966693309261245303787291,-0.005000000000000004440892098500626161694527,0.01500000000000001332267629550187848508358,-0.00750000000000000666133814775093924254179,0.01000000000000000888178419700125232338905,-0.07250000000000000888178419700125232338905,-0.06750000000000000444089209850062616169453,-0.05749999999999999555910790149937383830547,-0.01249999999999999722444243843710864894092,-0.04249999999999999611421941381195210851729,-0.02999999999999999888977697537484345957637,0.09249999999999999888977697537484345957637,-0.1000000000000000055511151231257827021182,0.06500000000000000222044604925031308084726,-0.1224999999999999977795539507496869191527,-0.1125000000000000027755575615628913510591,-0.04499999999999999833466546306226518936455,-0.1174999999999999933386618522490607574582,0.09249999999999999888977697537484345957637,-0.07499999999999999722444243843710864894092,0.01000000000000000888178419700125232338905,0.07000000000000000666133814775093924254179,0.03750000000000000555111512312578270211816,0.09500000000000000111022302462515654042363,-0.1125000000000000027755575615628913510591,0.04999999999999998889776975374843459576368,0.0350000000000000033306690738754696212709,-0.07749999999999999944488848768742172978818,-0.06500000000000000222044604925031308084726,-0.06500000000000000222044604925031308084726,0.06750000000000000444089209850062616169453,-0.1000000000000000055511151231257827021182,-0.1100000000000000005551115123125782702118,0.07999999999999998778754672912327805534005,-0.0350000000000000033306690738754696212709,0.01000000000000000888178419700125232338905,-0.03750000000000000555111512312578270211816,-0.07000000000000000666133814775093924254179,-0.05499999999999999333866185224906075745821,0.08749999999999999444888487687421729788184,-0.1174999999999999933386618522490607574582,-0.01249999999999999722444243843710864894092,0.07750000000000001332267629550187848508358,-0.1025000000000000077715611723760957829654,0.09249999999999999888977697537484345957637,0.1000000000000000055511151231257827021182,0.09249999999999999888977697537484345957637,0.002500000000000002220446049250313080847263,0.06750000000000000444089209850062616169453,-0.08749999999999999444888487687421729788184,-0.1199999999999999955591079014993738383055,-0.1174999999999999933386618522490607574582,-0.1074999999999999983346654630622651893646,-0.04750000000000000055511151231257827021182,-0.08249999999999999000799277837359113618731,-0.05499999999999999333866185224906075745821,-0.1174999999999999933386618522490607574582,0.06500000000000000222044604925031308084726,0.09249999999999999888977697537484345957637,0.04999999999999998889776975374843459576368,-0.1000000000000000055511151231257827021182,0.02249999999999999222843882762390421703458,0.005000000000000004440892098500626161694527,0.01250000000000001110223024625156540423632,0.08499999999999999222843882762390421703458,-0.1199999999999999955591079014993738383055,0.0350000000000000033306690738754696212709,-0.05749999999999999555910790149937383830547,0.07000000000000000666133814775093924254179,-0.1125000000000000027755575615628913510591,-0.1224999999999999977795539507496869191527,0.04749999999999998667732370449812151491642,-0.0274999999999999966693309261245303787291,-0.01499999999999999944488848768742172978818,-0.1199999999999999955591079014993738383055,-0.07749999999999999944488848768742172978818,-0.01499999999999999944488848768742172978818,0.02499999999999999444888487687421729788184,0.09500000000000000111022302462515654042363,-0.03250000000000000111022302462515654042363,0.08499999999999999222843882762390421703458,0.02499999999999999444888487687421729788184,0.02499999999999999444888487687421729788184,0.0975000000000000033306690738754696212709,0.01999999999999999000799277837359113618731,-0.009999999999999995003996389186795568093657,0.05749999999999999555910790149937383830547,0.09249999999999999888977697537484345957637,-0.09500000000000000111022302462515654042363,-0.05000000000000000277555756156289135105908,0.1050000000000000099920072216264088638127,0.0274999999999999966693309261245303787291,0.03250000000000000111022302462515654042363,-0.0899999999999999966693309261245303787291,0.1174999999999999933386618522490607574582,-0.1100000000000000005551115123125782702118,-0.1049999999999999961142194138119521085173,-0.03750000000000000555111512312578270211816,-0.0274999999999999966693309261245303787291,-0.0899999999999999966693309261245303787291,0.09249999999999999888977697537484345957637,-0.1074999999999999983346654630622651893646,0.07999999999999998778754672912327805534005,-0.0625,-0.0899999999999999966693309261245303787291,-0.1174999999999999933386618522490607574582,-0.03250000000000000111022302462515654042363,0.0274999999999999966693309261245303787291,-0.09249999999999999888977697537484345957637,-0.0899999999999999966693309261245303787291,-0.0274999999999999966693309261245303787291,0.06750000000000000444089209850062616169453,-0.03750000000000000555111512312578270211816,-0.00750000000000000666133814775093924254179,0.02999999999999999888977697537484345957637,-0.04499999999999999833466546306226518936455,0.02249999999999999222843882762390421703458,0.125,0.02999999999999999888977697537484345957637,-0.1025000000000000077715611723760957829654,0.03250000000000000111022302462515654042363,0.0350000000000000033306690738754696212709,0.1099999999999999866773237044981215149164,0.02499999999999999444888487687421729788184,0.06750000000000000444089209850062616169453,-0.1100000000000000005551115123125782702118,-0.07499999999999999722444243843710864894092,-0.0625,-0.01249999999999999722444243843710864894092,0.04999999999999998889776975374843459576368,0.1099999999999999866773237044981215149164,0.002500000000000002220446049250313080847263,0.1000000000000000055511151231257827021182,-0.01750000000000000166533453693773481063545,0.09500000000000000111022302462515654042363,0.02499999999999999444888487687421729788184,0.02499999999999999444888487687421729788184,0.00750000000000000666133814775093924254179,0.09500000000000000111022302462515654042363,0.1025000000000000077715611723760957829654,0.06750000000000000444089209850062616169453,-0.0625,-0.06500000000000000222044604925031308084726,-0.08000000000000000166533453693773481063545,0.002500000000000002220446049250313080847263,-0.1049999999999999961142194138119521085173,-0.03750000000000000555111512312578270211816,0.06750000000000000444089209850062616169453,-0.1000000000000000055511151231257827021182,0.06500000000000000222044604925031308084726,-0.07749999999999999944488848768742172978818,-0.1174999999999999933386618522490607574582,0.1000000000000000055511151231257827021182,-0.1125000000000000027755575615628913510591,0.06750000000000000444089209850062616169453,0.08249999999999999000799277837359113618731,0.02999999999999999888977697537484345957637,0.1000000000000000055511151231257827021182,-0.1025000000000000077715611723760957829654,-0.1025000000000000077715611723760957829654,0.1199999999999999955591079014993738383055,0.07999999999999998778754672912327805534005,-0.07749999999999999944488848768742172978818,0.0899999999999999966693309261245303787291,-0.04750000000000000055511151231257827021182,-0.1199999999999999955591079014993738383055,-0.00750000000000000666133814775093924254179,0.07999999999999998778754672912327805534005,-0.01249999999999999722444243843710864894092,0.08249999999999999000799277837359113618731,0.07750000000000001332267629550187848508358,-0.08249999999999999000799277837359113618731,-0.02250000000000000610622663543836097232997,0.04749999999999998667732370449812151491642,0.04500000000000001221245327087672194465995,0.05499999999999999333866185224906075745821,0.09500000000000000111022302462515654042363,-0.03999999999999999389377336456163902767003,-0.1174999999999999933386618522490607574582,-0.01499999999999999944488848768742172978818,-0.03999999999999999389377336456163902767003,0.04250000000000000999200722162640886381269,0.0350000000000000033306690738754696212709,0.0625,0.1124999999999999888977697537484345957637,0.04999999999999998889776975374843459576368,0.07750000000000001332267629550187848508358,0.1099999999999999866773237044981215149164,-0.08499999999999999222843882762390421703458,0.1224999999999999977795539507496869191527,-0.05250000000000000499600361081320443190634,-0.07749999999999999944488848768742172978818,-0.01249999999999999722444243843710864894092,0.06500000000000000222044604925031308084726,-0.0350000000000000033306690738754696212709,-0.08499999999999999222843882762390421703458,-0.1025000000000000077715611723760957829654,-0.0975000000000000033306690738754696212709,-0.05250000000000000499600361081320443190634,0.1224999999999999977795539507496869191527,-0.02250000000000000610622663543836097232997,-0.03250000000000000111022302462515654042363,0.0625,-0.05749999999999999555910790149937383830547,-0.03999999999999999389377336456163902767003,0.1174999999999999933386618522490607574582,0.06750000000000000444089209850062616169453,-0.08749999999999999444888487687421729788184,-0.1125000000000000027755575615628913510591,0.04749999999999998667732370449812151491642,0.002500000000000002220446049250313080847263,-0.02000000000000000388578058618804789148271,-0.02499999999999999444888487687421729788184,0.05749999999999999555910790149937383830547,0.01999999999999999000799277837359113618731,0.1199999999999999955591079014993738383055,0.08249999999999999000799277837359113618731,0.1199999999999999955591079014993738383055,0.07250000000000000888178419700125232338905,-0.02250000000000000610622663543836097232997,-0.0625,-0.1125000000000000027755575615628913510591,0.1025000000000000077715611723760957829654,-0.002500000000000002220446049250313080847263,0.02499999999999999444888487687421729788184,-0.1074999999999999983346654630622651893646,0.0274999999999999966693309261245303787291,0.01250000000000001110223024625156540423632,0.06750000000000000444089209850062616169453,-0.1074999999999999983346654630622651893646,0.09500000000000000111022302462515654042363,0.08249999999999999000799277837359113618731,-0.07749999999999999944488848768742172978818,0,0.01000000000000000888178419700125232338905,0.1075000000000000122124532708767219446599,0.0274999999999999966693309261245303787291,-0.03999999999999999389377336456163902767003,-0.03999999999999999389377336456163902767003,-0.06750000000000000444089209850062616169453,-0.04499999999999999833466546306226518936455,0.01000000000000000888178419700125232338905,0.1000000000000000055511151231257827021182,0.01749999999999998778754672912327805534005,0.01500000000000001332267629550187848508358,0.1174999999999999933386618522490607574582,-0.02499999999999999444888487687421729788184,-0.09249999999999999888977697537484345957637,0.04000000000000000777156117237609578296542,-0.07000000000000000666133814775093924254179,-0.1199999999999999955591079014993738383055,0.08749999999999999444888487687421729788184,0.0975000000000000033306690738754696212709,0.08249999999999999000799277837359113618731,0.002500000000000002220446049250313080847263,-0.0625,0.1025000000000000077715611723760957829654,-0.05499999999999999333866185224906075745821,0.04500000000000001221245327087672194465995,0.03750000000000000555111512312578270211816,-0.0274999999999999966693309261245303787291,0.03750000000000000555111512312578270211816,0.08249999999999999000799277837359113618731,-0.1100000000000000005551115123125782702118,0.0274999999999999966693309261245303787291,0.07999999999999998778754672912327805534005,0.03250000000000000111022302462515654042363,-0.0350000000000000033306690738754696212709,0.01749999999999998778754672912327805534005,0.07250000000000000888178419700125232338905,-0.04499999999999999833466546306226518936455,-0.02499999999999999444888487687421729788184,0.04250000000000000999200722162640886381269,0.07750000000000001332267629550187848508358,0.02499999999999999444888487687421729788184,0.1025000000000000077715611723760957829654,0.1199999999999999955591079014993738383055,0.09500000000000000111022302462515654042363,0.02999999999999999888977697537484345957637,0.01250000000000001110223024625156540423632,0.09500000000000000111022302462515654042363,0.0274999999999999966693309261245303787291,-0.01750000000000000166533453693773481063545,-0.1150000000000000049960036108132044319063,-0.02999999999999999888977697537484345957637,0.0975000000000000033306690738754696212709,-0.02000000000000000388578058618804789148271,-0.03250000000000000111022302462515654042363,-0.06500000000000000222044604925031308084726,-0.0975000000000000033306690738754696212709,0.1124999999999999888977697537484345957637,0.01500000000000001332267629550187848508358,0.01250000000000001110223024625156540423632,-0.02999999999999999888977697537484345957637,0.02249999999999999222843882762390421703458,-0.0350000000000000033306690738754696212709,0.06750000000000000444089209850062616169453,-0.08000000000000000166533453693773481063545,0.06750000000000000444089209850062616169453,0.01999999999999999000799277837359113618731,-0.03250000000000000111022302462515654042363,-0.1125000000000000027755575615628913510591,-0.01249999999999999722444243843710864894092,-0.1100000000000000005551115123125782702118,-0.00750000000000000666133814775093924254179,-0.03250000000000000111022302462515654042363,0.1199999999999999955591079014993738383055,0.1199999999999999955591079014993738383055,-0.03999999999999999389377336456163902767003,-0.04249999999999999611421941381195210851729,-0.07250000000000000888178419700125232338905,-0.05749999999999999555910790149937383830547,0.1149999999999999911182158029987476766109,0.1149999999999999911182158029987476766109,-0.06500000000000000222044604925031308084726,0.02249999999999999222843882762390421703458,0.07000000000000000666133814775093924254179,-0.08249999999999999000799277837359113618731,0.0625,-0.0975000000000000033306690738754696212709,0.07000000000000000666133814775093924254179,0.09249999999999999888977697537484345957637,0.07000000000000000666133814775093924254179,-0.07000000000000000666133814775093924254179,-0.1224999999999999977795539507496869191527,0.07999999999999998778754672912327805534005,-0.05000000000000000277555756156289135105908,-0.01249999999999999722444243843710864894092,0.005000000000000004440892098500626161694527,-0.05000000000000000277555756156289135105908,0.03750000000000000555111512312578270211816,0.06500000000000000222044604925031308084726,-0.02499999999999999444888487687421729788184,0.02499999999999999444888487687421729788184,0.01500000000000001332267629550187848508358,0.0274999999999999966693309261245303787291,-0.1049999999999999961142194138119521085173,0.1224999999999999977795539507496869191527,0.1224999999999999977795539507496869191527,-0.09500000000000000111022302462515654042363,0.08499999999999999222843882762390421703458,0.1075000000000000122124532708767219446599,-0.06500000000000000222044604925031308084726,0.04250000000000000999200722162640886381269,-0.01499999999999999944488848768742172978818,0.02999999999999999888977697537484345957637,-0.05749999999999999555910790149937383830547,-0.05749999999999999555910790149937383830547,-0.01750000000000000166533453693773481063545,-0.04499999999999999833466546306226518936455,-0.1100000000000000005551115123125782702118,-0.03999999999999999389377336456163902767003,0.06500000000000000222044604925031308084726,0.06500000000000000222044604925031308084726,-0.1074999999999999983346654630622651893646,0.05999999999999999777955395074968691915274,-0.1049999999999999961142194138119521085173,-0.05499999999999999333866185224906075745821,0.02999999999999999888977697537484345957637,-0.04249999999999999611421941381195210851729,-0.1125000000000000027755575615628913510591,0.08749999999999999444888487687421729788184,0.0975000000000000033306690738754696212709,0.02249999999999999222843882762390421703458,0.09249999999999999888977697537484345957637,-0.04750000000000000055511151231257827021182,0.0274999999999999966693309261245303787291,0.07000000000000000666133814775093924254179,0.1099999999999999866773237044981215149164,-0.04750000000000000055511151231257827021182,-0.06750000000000000444089209850062616169453,0.08499999999999999222843882762390421703458,0.01250000000000001110223024625156540423632,0.05249999999999999111821580299874767661095,-0.06750000000000000444089209850062616169453,0.05999999999999999777955395074968691915274,0.01000000000000000888178419700125232338905,0.09500000000000000111022302462515654042363,-0.04499999999999999833466546306226518936455,-0.05000000000000000277555756156289135105908,-0.00750000000000000666133814775093924254179,-0.1025000000000000077715611723760957829654,0.05249999999999999111821580299874767661095,-0.05000000000000000277555756156289135105908,0.07250000000000000888178419700125232338905,0.02249999999999999222843882762390421703458,-0.1049999999999999961142194138119521085173,0.04250000000000000999200722162640886381269,0.0274999999999999966693309261245303787291,-0.002500000000000002220446049250313080847263,0.03250000000000000111022302462515654042363,-0.03250000000000000111022302462515654042363,0.1099999999999999866773237044981215149164,-0.1150000000000000049960036108132044319063,-0.01750000000000000166533453693773481063545,-0.07250000000000000888178419700125232338905,0.01999999999999999000799277837359113618731,-0.009999999999999995003996389186795568093657,0.03750000000000000555111512312578270211816,-0.05749999999999999555910790149937383830547,-0.005000000000000004440892098500626161694527,0.1050000000000000099920072216264088638127,-0.06750000000000000444089209850062616169453,0.07000000000000000666133814775093924254179,-0.01499999999999999944488848768742172978818,-0.1049999999999999961142194138119521085173,-0.08749999999999999444888487687421729788184,-0.005000000000000004440892098500626161694527,-0.08749999999999999444888487687421729788184,-0.07000000000000000666133814775093924254179,-0.1025000000000000077715611723760957829654,0.07000000000000000666133814775093924254179,-0.05749999999999999555910790149937383830547,0.1174999999999999933386618522490607574582,-0.00750000000000000666133814775093924254179,-0.08000000000000000166533453693773481063545,-0.08749999999999999444888487687421729788184,-0.1150000000000000049960036108132044319063,-0.05499999999999999333866185224906075745821,-0.01750000000000000166533453693773481063545,-0.04499999999999999833466546306226518936455,0.1050000000000000099920072216264088638127,0.002500000000000002220446049250313080847263,-0.07749999999999999944488848768742172978818,-0.01249999999999999722444243843710864894092,0.04250000000000000999200722162640886381269,-0.00750000000000000666133814775093924254179,0.1149999999999999911182158029987476766109,0.07750000000000001332267629550187848508358,0.0625,-0.06750000000000000444089209850062616169453,-0.01249999999999999722444243843710864894092,-0.07499999999999999722444243843710864894092,0.02999999999999999888977697537484345957637,-0.009999999999999995003996389186795568093657,0.06750000000000000444089209850062616169453,0.03250000000000000111022302462515654042363,0.09500000000000000111022302462515654042363,-0.02000000000000000388578058618804789148271,0.01500000000000001332267629550187848508358,-0.06750000000000000444089209850062616169453,-0.1074999999999999983346654630622651893646,0.02499999999999999444888487687421729788184,0.1075000000000000122124532708767219446599,-0.02999999999999999888977697537484345957637,0.09249999999999999888977697537484345957637,0.1099999999999999866773237044981215149164,0.005000000000000004440892098500626161694527,0.005000000000000004440892098500626161694527,0.04999999999999998889776975374843459576368,-0.08499999999999999222843882762390421703458,-0.0625,-0.1025000000000000077715611723760957829654,-0.1000000000000000055511151231257827021182,0.1050000000000000099920072216264088638127,-0.09249999999999999888977697537484345957637,0.09500000000000000111022302462515654042363,-0.1025000000000000077715611723760957829654,-0.00750000000000000666133814775093924254179,0.03250000000000000111022302462515654042363,0.05499999999999999333866185224906075745821,0.02249999999999999222843882762390421703458,-0.05749999999999999555910790149937383830547,0.04749999999999998667732370449812151491642,0.1050000000000000099920072216264088638127,0.07999999999999998778754672912327805534005,0.125,-0.0975000000000000033306690738754696212709,-0.09500000000000000111022302462515654042363,-0.1199999999999999955591079014993738383055,-0.05749999999999999555910790149937383830547,0.1149999999999999911182158029987476766109,-0.1025000000000000077715611723760957829654,-0.1049999999999999961142194138119521085173,-0.005000000000000004440892098500626161694527,0.07750000000000001332267629550187848508358,0.1099999999999999866773237044981215149164,0.05749999999999999555910790149937383830547,-0.009999999999999995003996389186795568093657,0.08249999999999999000799277837359113618731,-0.0625,-0.1000000000000000055511151231257827021182,0.0625,-0.08249999999999999000799277837359113618731,0.05499999999999999333866185224906075745821,-0.05000000000000000277555756156289135105908,0.1099999999999999866773237044981215149164,-0.002500000000000002220446049250313080847263,-0.07250000000000000888178419700125232338905,-0.05999999999999999777955395074968691915274,-0.07250000000000000888178419700125232338905,0.00750000000000000666133814775093924254179,0.04000000000000000777156117237609578296542,-0.08249999999999999000799277837359113618731,-0.07000000000000000666133814775093924254179,0.1174999999999999933386618522490607574582,0.08749999999999999444888487687421729788184,-0.09500000000000000111022302462515654042363,-0.0625,0.02249999999999999222843882762390421703458,-0.00750000000000000666133814775093924254179,-0.08749999999999999444888487687421729788184,0.03250000000000000111022302462515654042363,-0.04750000000000000055511151231257827021182,0.0625,-0.005000000000000004440892098500626161694527,0.02999999999999999888977697537484345957637,0.0274999999999999966693309261245303787291,0.00750000000000000666133814775093924254179,0.02249999999999999222843882762390421703458,-0.002500000000000002220446049250313080847263,0.03250000000000000111022302462515654042363,-0.0274999999999999966693309261245303787291,0.0350000000000000033306690738754696212709,-0.1025000000000000077715611723760957829654,-0.0274999999999999966693309261245303787291,0.07750000000000001332267629550187848508358,0.00750000000000000666133814775093924254179,0.07250000000000000888178419700125232338905,0.1075000000000000122124532708767219446599,-0.09500000000000000111022302462515654042363,-0.1174999999999999933386618522490607574582,0.05499999999999999333866185224906075745821,0.06500000000000000222044604925031308084726,0.09500000000000000111022302462515654042363,0.04999999999999998889776975374843459576368,0.02249999999999999222843882762390421703458,0.04250000000000000999200722162640886381269,0.01999999999999999000799277837359113618731,-0.1074999999999999983346654630622651893646,0.0899999999999999966693309261245303787291,-0.08249999999999999000799277837359113618731,0.05249999999999999111821580299874767661095,0.02999999999999999888977697537484345957637,0.0350000000000000033306690738754696212709,0.01999999999999999000799277837359113618731,0.01250000000000001110223024625156540423632,-0.02499999999999999444888487687421729788184,-0.07250000000000000888178419700125232338905,-0.1150000000000000049960036108132044319063,0.125,0.02249999999999999222843882762390421703458,-0.05000000000000000277555756156289135105908,-0.1025000000000000077715611723760957829654,-0.0274999999999999966693309261245303787291,0.03250000000000000111022302462515654042363,-0.009999999999999995003996389186795568093657,0.03250000000000000111022302462515654042363,0.01250000000000001110223024625156540423632,-0.06750000000000000444089209850062616169453,0.06750000000000000444089209850062616169453,-0.03750000000000000555111512312578270211816,-0.03750000000000000555111512312578270211816,0.07500000000000001110223024625156540423632,0.04749999999999998667732370449812151491642,0.1124999999999999888977697537484345957637,-0.009999999999999995003996389186795568093657,0.00750000000000000666133814775093924254179,0.04999999999999998889776975374843459576368,-0.1025000000000000077715611723760957829654,-0.1125000000000000027755575615628913510591,0.06500000000000000222044604925031308084726,-0.02000000000000000388578058618804789148271,-0.05250000000000000499600361081320443190634,-0.01249999999999999722444243843710864894092,0.02499999999999999444888487687421729788184,-0.002500000000000002220446049250313080847263,-0.1174999999999999933386618522490607574582,-0.05999999999999999777955395074968691915274,0.09500000000000000111022302462515654042363,-0.03250000000000000111022302462515654042363,-0.05499999999999999333866185224906075745821,0.05249999999999999111821580299874767661095,0.2276839915321233198675088260642951354384,0.0442718872423572551433323951641796156764,0.1075174404457249210942393347067991271615,0.1075174404457249210942393347067991271615,0.08221921916437785471387655888975132256746,0.1834121042897660092130251996422884985805,-0.08221921916437785471387655888975132256746,0.2846049894151541637121738403948256745934,0.03162277660168383297545346977130975574255,0.11384199576606168768933002866106107831,-0.05692099788303084384466501433053053915501,-0.1138419957660616599337544130321475677192,-0.1644384383287557371833287334084161557257,-0.09486832980505138790405794679827522486448,0.2276839915321233198675088260642951354384,-0.08854377448471462130896725284401327371597,-0.08854377448471462130896725284401327371597,-0.1391402170474086708029659575913683511317,0.2466576574931335641416296766692539677024,-0.1897366596101027480525402779676369391382,-0.1770875489694292426179345056880265474319,0.2023857702507762534871460502472473308444,0.2340085468524600309514482887607300654054,-0.2087103255711130200822367442015092819929,0.2656313234541439194380529897898668423295,0,-0.1454647723677454373980566515456303022802,0.2909295447354908747961133030912606045604,0.2340085468524600309514482887607300654054,0.2340085468524600309514482887607300654054,0.11384199576606168768933002866106107831,0.2276839915321233198675088260642951354384,-0.07589466384404111587436148056440288200974,0.1834121042897660092130251996422884985805,0.2276839915321233198675088260642951354384,-0.06957010852370434927927078661014093086123,0.1770875489694292426179345056880265474319,0.05692099788303078833351378307270351797342,0.09486832980505138790405794679827522486448,-0.1581138830084189705882380394541542045772,-0.2846049894151541637121738403948256745934,0.1264911064067351653683601853117579594254,0.1264911064067351653683601853117579594254,0.1960612149304395424032065875508124008775,0.2656313234541439194380529897898668423295,0.07589466384404108811878586493548937141895,-0.05692099788303084384466501433053053915501,-0.2782804340948173971170831464405637234449,0.3099032106965012300925366162118734791875,0.03794733192202059957054416372557170689106,-0.07589466384404111587436148056440288200974,0.145464772367745465153632267174543812871,-0.1011928851253881267435730251236236654222,0.0442718872423572551433323951641796156764,0.3162277660168379411764760789083084091544,-0.1960612149304395424032065875508124008775,0.2340085468524600309514482887607300654054,-0.01264911064067353319018138790852390229702,0.05059644256269402173842308911844156682491,-0.03794733192202054405939293246774468570948,-0.1834121042897660092130251996422884985805,-0.07589466384404111587436148056440288200974,-0.2656313234541438639269017585320398211479,-0.1897366596101027480525402779676369391382,-0.2466576574931335918972052922981674782932,0.03162277660168383297545346977130975574255,-0.2276839915321233198675088260642951354384,-0.05692099788303084384466501433053053915501,0.1707629936490924760228438117337645962834,0.1075174404457249210942393347067991271615,0.08854377448471462130896725284401327371597,0.2466576574931335641416296766692539677024,-0.06957010852370434927927078661014093086123,0.01897366596101029978527208186278585344553,-0.02529822128134701086921154455922078341246,0.2909295447354908747961133030912606045604,0.08221921916437785471387655888975132256746,-0.1264911064067351931239358009406714700162,0.3162277660168379411764760789083084091544,-0.1707629936490924760228438117337645962834,0.2846049894151541637121738403948256745934,-0.2023857702507762812427216658761608414352,0.2150348808914497866773274381557712331414,0.3035786553761644079862946909997845068574,0.2909295447354908747961133030912606045604,-0.2466576574931335918972052922981674782932,0.05059644256269402173842308911844156682491,-0.2972541000558276413912039970455225557089,-0.03162277660168377746430223851348273456097,0.07589466384404108811878586493548937141895,-0.1834121042897660092130251996422884985805,-0.1644384383287557371833287334084161557257,0.1075174404457249210942393347067991271615,-0.1770875489694292426179345056880265474319,-0.2403331021727968530576902139728190377355,-0.2972541000558276413912039970455225557089,0.1960612149304395424032065875508124008775,0.05059644256269402173842308911844156682491,0.2909295447354908747961133030912606045604,0.05692099788303078833351378307270351797342,-0.1770875489694292426179345056880265474319,0.1770875489694292426179345056880265474319,-0.1391402170474086708029659575913683511317,-0.02529822128134701086921154455922078341246,0.05059644256269402173842308911844156682491,0.2656313234541439194380529897898668423295,0.2656313234541439194380529897898668423295,-0.1264911064067351931239358009406714700162,-0.2529822128134703307367203706235159188509,0.2403331021727968530576902139728190377355